encog,BasicNetwork,java,3.4.0,1,1712070152730
[BASIC]
[BASIC:PARAMS]
[BASIC:NETWORK]
beginTraining=0
connectionLimit=0
contextTargetOffset=0,0,0
contextTargetSize=0,0,0
endTraining=2
hasContext=f
inputCount=23
layerCounts=3,26,24
layerFeedCounts=3,25,23
layerContextCount=0,0,0
layerIndex=0,3,29
output=0,0,0,0,0,0,0,0,0,0,0,0,0,0,0,0,0,0,0,0,0,0,0,0,0,0,0,0,1,0,0,0,0,0,0,0,0,0,0,0,0,0,0,0,0,0,0,0,0,0,0,0,1
outputCount=3
weightIndex=0,78,678
weights=-0.6667067638,0.6365936405,-0.4687114795,0.398622946,-0.2357208911,-1.3983920912,-0.6459577403,0.2094386857,1.0013605102,-0.4999858002,-0.1254735002,0.954848802,-0.1229989269,-0.5699213755,0.3531172052,1.0085309061,1.0067427223,-1.1886762686,0.3568496738,0.0115487047,-1.1926267472,-0.4472367797,0.0480029926,0.5843225141,-0.5465845025,0.5228127752,0.2631721162,-0.3328984028,0.2637516057,-0.6136975059,-0.1243085304,-0.2474951569,-0.4224568833,-0.1603236521,0.0350511514,0.0317910044,0.3696791937,-0.6606795317,0.3825857252,0.2170162904,-0.3639843071,0.8147526459,0.4066404819,0.3867228772,-0.4179249867,0.0961544761,-0.0850611966,-0.3085885887,0.132480473,0.2921874541,-0.4187810023,0.9913373861,0.214643941,-0.63667082,1.5067755707,0.2570904811,-0.7823229907,-0.8158869577,0.4071273331,0.5856370011,-0.2691496803,-0.2011350709,0.1955707351,0.7926706176,1.0350959167,-0.3199810637,-0.420847118,0.0519354708,0.1654222077,-0.7527747875,0.2340267432,0.318143575,-0.8684881187,-0.0574255023,-0.6644256254,-0.2528736385,-0.6066040391,-0.7271580867,0.2032881997,0.1046670876,-0.8496311481,-0.3370608122,-0.8125104403,-0.6451797886,-0.6064971571,-1.2079868202,1.0214064286,-0.0499015559,-0.0288531504,-0.2568520789,-2.1013101514,-0.4034013235,-0.0168687632,0.9211615855,-0.0356095937,0.3219323017,-0.9979635691,-0.5673750593,0.1112459649,1.0007427241,-0.204514421,0.8436329058,-0.2066781851,-0.0363482462,-0.6800725469,0.8808394165,0.0453055206,1.7319390529,-1.0254991641,-0.6019348949,-0.753779964,0.2437802515,0.7963268214,0.4817136495,0.7120466646,-0.6528624697,0.118982795,-0.4033567356,-0.2186300562,-0.3395794897,0.9102795431,-0.4338579672,0.6115934375,-1.1017812511,-1.2679292483,-0.4010554157,0.1642344121,-0.0043259851,0.6147876927,0.8314855339,0.2688010224,-0.5171556799,0.1918174864,-0.9366341645,-0.4038200023,0.2955405285,-1.0234288133,-2.0710143557,-2.4063603981,0.0964714616,1.3968081994,0.2951025581,0.686300893,-0.9204762914,-0.9804483827,-1.078437632,0.0889043028,1.1855344724,0.7055276302,-0.3798957192,-1.4703835164,0.2891907955,1.3301655341,-0.13271835,-0.7960282654,0.1672425051,-1.2119463528,0.2593385277,-0.1175982704,0.4377141516,0.4524772308,0.0502385985,0.0351275005,-0.4424873618,0.4822336954,-0.2468721823,-0.5002050289,-0.0791139707,-0.9394766991,0.6140048774,-1.2748567852,0.3570626648,-0.7569543743,-1.8606966492,0.7115847584,-0.8981924252,-0.4826967101,-0.398053438,-0.4190462798,0.207150031,0.3541286231,-0.8582635506,-1.1020864379,-1.1189208061,0.2385963403,0.2547681176,1.3315293516,-0.7849660254,-0.5953316858,-1.0355216916,0.1496191376,1.0284380724,0.8745278318,-0.1613140933,0.5919079681,-0.9694783124,0.7288008499,-0.0540853964,0.3332484386,0.2558894618,-0.265568921,0.5514213167,0.1924008689,0.0387627146,0.4910711749,-0.0315908803,-0.7481885344,-0.7255928598,0.9838107086,-0.2481376309,-1.2793198683,0.6762967699,0.2799690156,0.31345348,0.0624106751,0.0006376393,-0.7009261553,0.2926606453,-0.5105915525,-0.1079707349,0.8657078464,0.5107632609,-0.215548978,0.5704044787,0.3633622335,-0.1602179882,-0.7063699118,-0.9928447283,0.9704455231,-0.3959362798,0.5438898892,0.390651233,-1.2587184854,0.1279530089,-0.5460604452,0.2013717049,-0.0643379865,-0.1539869102,-0.0009065532,-0.2776012874,0.4849299094,-0.9837610767,-0.8840281318,-0.5360111729,0.5045680325,0.1629074906,-0.751566018,1.0293636246,1.5425389348,-0.8095194893,-0.0696838109,0.3581469052,-0.7588971175,-1.1795269757,0.8706219125,1.137887798,0.2380439617,-0.7468975339,-0.5805284879,-1.1841782032,0.1517688194,-0.6897562349,-1.018206883,0.5862160547,-1.2448486636,0.3160284257,-1.0783389803,-0.9651927728,-0.4212386477,-0.6197854561,0.6809404297,-0.5967471863,0.4804212017,0.198010338,0.1208553193,0.4659964482,0.6283264258,-0.7066510156,-1.1974718565,-1.0038528122,0.8737693553,0.0196995579,0.5742627594,-0.0124229592,-0.563547079,-0.723784426,0.1725877134,-0.7243688141,-0.6623504371,-0.2599432119,0.4753385616,0.3556487992,0.4598131648,0.145228588,0.1453903468,0.4035502521,0.2933783412,0.187305457,-0.7059753369,-1.3182185757,0.2957619428,0.3596737343,-0.1799819461,-0.8508566981,0.6785962959,0.0900829818,-0.8491043142,-0.2305435141,-0.61720557,0.2825512577,0.3399908232,-0.1288967251,-0.7541456416,0.1165320554,-0.849973516,0.4312529373,-0.7536194493,-0.2133717835,-0.2074223473,-0.8561937964,-0.5803680829,0.5544650656,-0.7499683823,-0.1811307122,-0.1591475736,-0.1734574884,-0.8725875947,-0.3835040566,0.1515159051,-1.1017328372,-1.123630809,0.8982062925,0.7776863149,-0.8178724489,-0.3903996866,-0.1579777532,1.0269202489,0.3216447706,-0.0482977624,1.0448252155,-0.6645030225,0.4074509616,-1.3707404019,0.8629854263,1.8816764024,-0.5598100781,-0.2934236316,-0.5757105439,-1.8438027296,-0.6771843279,-0.7115220595,1.5454242263,-0.5262469186,1.0918377601,-0.2651756655,-0.8763733029,-1.1156941566,-0.2356556443,0.6820960028,-0.5024112951,-1.0719321006,0.5547605621,-2.1121658143,0.0343545029,-2.2507698481,-1.0274912033,0.3812425969,0.2324922465,0.0087955865,-0.2384245671,0.3102792542,-1.1200765181,1.2206854574,-0.5684779692,-0.7912712231,-0.7105857182,0.55324304,0.0952849549,-0.1960258588,0.8424670702,-0.2363473108,-0.3403706932,-0.2253549436,-0.0113973089,-0.2571870471,-0.9985635596,-0.5896870153,-0.4814432683,0.0278103798,0.8634106917,-0.899087592,0.3252827239,0.2834046804,-0.4263118823,0.4572038277,-0.3911009352,-0.7274117739,0.2061195014,0.5338703098,-0.8851541018,0.8660283908,1.1776225444,1.4460756435,-0.4873752427,-0.5457588001,-0.0464967941,0.1085375692,-0.7126202896,-0.6370324125,-0.501849582,0.3726298594,-0.1845686413,-1.0406673512,0.4344897068,0.9280129617,-0.0279429405,-0.5808762382,-0.6608911381,0.6893724386,-0.0623589273,-1.3278465774,-0.4307346648,-1.1476953184,0.0181760571,0.5586395273,-0.079472834,-0.1321851305,0.0193539969,0.1880058237,0.3331931259,0.2192473545,-0.1735517541,-0.038532186,0.7173295262,0.3992575248,-1.1548996973,-0.3101502782,-0.9888528051,0.4232904845,-1.0053200878,-0.1905877692,1.0449045787,0.7721976822,-0.5564075028,-0.693219839,0.0811487841,-1.1338258228,0.1345158196,-0.0646812158,-0.3223862942,0.0261520064,0.6961537376,0.7322439986,-0.325078888,0.6928229506,0.0718007419,-0.4067045732,-1.0536928602,0.4074146924,-0.1230538454,0.6864510779,0.4589779264,-0.3668506205,-1.2475030732,-0.3156143888,-0.0432808302,-0.1740250549,0.9336594838,0.041176479,0.1396710599,-0.6056713624,-0.6241480324,0.6242417394,0.1351161691,0.4785816894,-0.1165252731,-0.0526130224,0.17470662,0.3097925513,-0.2943804466,-0.200171644,-0.0447952538,-0.5168293777,0.1661550096,-0.8601992945,0.784527332,0.6655614121,0.5671855601,0.5043606223,0.9001502909,0.8079866981,-0.0531409492,0.0778558749,0.6019915695,-0.6815605097,-0.231773643,-0.4426320561,-0.7299377243,0.2488628868,0.2019528503,0.6299170458,-0.224809013,0.5294401476,-0.5946769294,-0.5351205096,-1.0101691982,-0.8712399174,-0.3598019994,0.1565166794,-0.9659811321,-0.4458925545,-0.1937543545,1.418175023,-0.8723500384,0.385296739,-0.9281237394,-1.1756850911,0.8287009974,0.7569674159,0.7364994197,0.67693234,-1.339124047,-0.1689902299,0.0030837403,-0.4913592873,0.3913969698,0.5321228624,0.572927939,-0.5540667755,0.7373880375,-0.6265081123,-0.2275447135,-0.5882977264,-0.3285570669,-1.0752483869,0.4923154745,1.3825295938,0.5350095377,-0.3150562524,-0.2077609631,-0.5493359838,-0.3271047843,0.805736754,-0.5288564709,-0.6463365114,-0.2833622607,-1.6627669057,0.1690439265,1.0899775715,-0.9683901897,-0.4533696127,-0.8334433247,-0.3822633222,0.6316225443,-1.3363091945,0.0835407334,-0.5538015529,0.6539240601,-0.0823442744,0.0424933838,0.1820609707,-0.3915989944,0.2786610191,-0.5243931599,0.7584862249,-1.1715727612,0.1461534633,-0.0924717053,-0.5109111702,0.1113894067,-0.1732689958,0.6955097557,-0.6282621962,-0.760130215,1.0342020456,0.1291483257,0.1113986132,-0.1521976165,-0.2866682951,-0.3003689627,0.276034791,0.6184680325,-0.9899627661,-0.6055746649,-1.0280114391,-0.6320310627,0.567657409,-0.9493763706,-0.2991632487,0.6219232757,0.6695807166,0.0878982547,0.7207443475,-1.1390723966,-0.4941195104,0.6993246483,0.4345761133,-0.1628390006,-0.8616776887,-0.1928080105,0.3537767705,0.2676950185,0.6878384032,0.1240535133,-0.4473271787,0.6895702205,0.249069334,-0.7286959126,-0.3628692734,0.0822237458,-1.1617976437,0.0842727021,0.6693760891,0.420737582,-0.0409371856,0.6917494183,0.9090169105,-1.2450548566,-0.6586604537,-0.5054100764,-0.6852253796,0.619119682,-0.7559251146,-0.2415791136,-0.0832356478,-0.2867165687,0.384043397,0.3722283705,0.3310433342,-0.6592093173,0.3360074031,-1.0474348535,-0.3014844792,0.6997366447,0.132099306,0.1025449817,-1.0213993539,-0.0953109208,-0.1831358567,0.0243722063,-0.4315448348,0.7952636927,0.4778876623,-0.4803303927,-0.707566328,-0.3808790914,0.2877647115,0.7749220115,0.8156072377,0.2851775987,-0.3115235286,-0.3618520148,-0.708212947,0.074072633,-0.6673236975,-0.1717481601,-0.6506410431,-0.4325922204,-0.1107267302,-0.7162332084,-0.1755558732,-0.2725501278,-0.83120599,-0.3848100017,-0.8803527838,-0.2116459456,-0.03672575,-0.0881797453,-0.015719131,-0.2417198212,-0.952642799,0.1723053527,0.8174334395,0.5710611785,0.2364176854,0.8639848605,-0.1273381641,0.4670508003
biasActivation=0,1,1
[BASIC:ACTIVATION]
"org.encog.engine.network.activation.ActivationSoftMax"
"org.encog.engine.network.activation.ActivationReLU",0,0
"org.encog.engine.network.activation.ActivationLinear"
